tree
version=v3
num_class=1
num_tree_per_iteration=1
label_index=0
max_feature_idx=8
objective=binary sigmoid:1
feature_names=dwd_ord_bike_ride_info_ride_time dwd_ord_bike_ride_info_ride_distance dwd_ord_bike_ride_info_openlock_time dwd_ord_bike_ride_info_pay_status dwd_ord_bike_ride_info_system_code dwd_ord_bike_ride_info_end_type dwd_ord_bike_ride_info_start_type dwd_ord_bike_ride_info_ride_status dwd_ord_bike_ride_info_create_channel
feature_infos=[-1:241] [-1:90093] [-1580000000000:79651] [-1:2] [61:65] [-2:5] [-2:3] [-1:2] [0:3]
tree_sizes=2782 3306 3422 4352 2812 3317 4458 3222 3321 3634 3544 3535 3425 3325 3837 3836 3612 5080 3636 3746

Tree=0
num_leaves=26
num_cat=0
split_feature=0 3 3 1 0 3 0 3 0 2 5 4 1 1 1 1 0 0 1 2 2 2 1 2 2
split_gain=2984.35 584.565 41.6602 29.7015 29.532 72.0451 10.8158 6.55965 5.11067 6.71094 4.2255 3.32763 3.43739 3.18741 2.68425 1.84945 1.05564 5.40041 1.21539 0.797179 0.561107 0.396433 0.337394 0.0403718 0.354906
threshold=119.50000000000001 1.5000000000000002 1.0000000180025095e-35 6165.0000000000009 219.00000000000003 1.5000000000000002 30.500000000000004 1.0000000180025095e-35 177.50000000000003 1912.5000000000002 1.0000000180025095e-35 63.500000000000007 3765.0000000000005 7061.0000000000009 11856.000000000002 9037.0000000000018 2.5000000000000004 3.5000000000000004 291.50000000000006 1319.5000000000002 2083.0000000000005 1628.5000000000002 7722.0000000000009 9015.5000000000018 2156.5000000000005
decision_type=2 2 2 2 2 2 2 2 2 2 2 2 2 2 2 2 2 2 2 2 2 2 2 2 2
left_child=1 2 3 19 5 7 16 -2 9 -9 11 20 -13 23 15 22 -4 18 -18 -1 -8 -17 -15 24 -14
right_child=4 -3 6 -5 -6 -7 10 8 -10 -11 -12 12 13 14 -16 21 17 -19 -20 -21 -22 -23 -24 -25 -26
leaf_value=-0.52963319300400957 -0.45019233128238612 -0.41864472919263979 -0.54437685928740376 -0.45491891250623695 -0.41751813233699581 -0.41708528111299359 -0.54351904137081941 -0.5069332645101301 -0.45997060249266586 -0.46924401730642806 -0.51141281187021514 -0.51545567380094914 -0.53977642904072787 -0.5228916519826956 -0.54106648216682307 -0.51947679990609319 -0.51693966081594278 -0.54205575543371398 -0.53359106468392992 -0.51706113002712151 -0.53563125870787853 -0.50830395933824324 -0.53416910893975367 -0.54419878003947053 -0.5304407990872837
leaf_weight=8.2325388491153735 8.2325388491153699 39.045755684375763 167.47336173057556 7.9973234534263602 252.62133496999741 55.510833382606506 31.283647626638412 9.6438312232494408 7.0564618706703177 7.526892662048339 8.2325388491153699 12.466415971517561 25.638478130102158 7.0564618706703213 9.408615827560423 7.2916772663593274 9.8790466189384478 275.20201295614243 8.4677542448043805 16.465077698230743 20.463739424943924 7.5268926620483398 8.9381850361824018 7.9973234534263602 8.7029696404933912
leaf_count=35 35 166 712 34 1074 236 133 41 30 32 35 53 109 30 40 31 42 1170 36 70 87 32 38 34 37
internal_value=0 -1.16807 -1.39435 -0.290526 2.45151 1.9481 -1.45277 0.760317 0.492173 0.190802 -1.22105 -1.26062 -1.14469 -1.21997 -1.0096 -0.859094 -1.53047 -1.4892 -0.949257 -0.835418 -1.47157 -0.589781 -1.10235 -1.41746 -1.37291
internal_weight=0 687.77 648.724 32.6949 340.592 87.9706 616.029 32.4597 24.2272 17.1707 155.007 146.774 95.027 82.5606 40.2218 30.8132 461.022 293.549 18.3468 24.6976 51.7474 14.8186 15.9946 42.3388 34.3414
internal_count=4372 2924 2758 139 1448 374 2619 138 103 73 659 624 404 351 171 131 1960 1248 78 105 220 63 68 180 146
shrinkage=1


Tree=1
num_leaves=31
num_cat=0
split_feature=0 3 3 1 0 3 0 2 0 2 5 2 2 0 0 0 1 0 0 0 0 0 1 1 1 1 1 1 0 2
split_gain=2813.12 507.91 39.0483 32.212 25.1118 63.2272 10.1592 7.10262 9.00957 3.70627 2.1784 1.74879 1.81472 1.52655 6.76171 1.29048 1.226 1.35801 0.884349 3.49799 0.675444 0.633986 0.72487 1.22156 0.388388 0.465648 0.383702 0.33037 0.305116 0.101854
threshold=119.50000000000001 1.5000000000000002 1.0000000180025095e-35 6165.0000000000009 223.50000000000003 1.5000000000000002 30.500000000000004 2412.5000000000005 179.50000000000003 1370.5000000000002 1.0000000180025095e-35 1513.5000000000002 2786.5000000000005 99.500000000000014 90.500000000000014 32.500000000000007 7061.0000000000009 67.500000000000014 2.5000000000000004 3.5000000000000004 74.500000000000014 5.5000000000000009 423.00000000000006 515.00000000000011 6165.0000000000009 4891.0000000000009 303.50000000000006 3974.0000000000005 55.500000000000007 1524.5000000000002
decision_type=2 2 2 2 2 2 2 2 2 2 2 2 2 2 2 2 2 2 2 2 2 2 2 2 2 2 2 2 2 2
left_child=1 2 3 11 5 7 18 8 9 -2 13 -1 -13 14 15 -8 24 -18 -4 26 -19 22 -21 -24 25 27 -20 28 -17 -27
right_child=4 -3 6 -5 -6 -7 10 -9 -10 -11 -12 12 -14 -15 -16 16 17 20 19 21 -22 -23 23 -25 -26 29 -28 -29 -30 -31
leaf_value=-0.01681309475036754 0.015058367230075646 0.073074025652242261 -0.047388386435808449 0.039386464941897133 0.074823882013051221 0.075474277969980685 -0.025309725646306874 0.045616797793362564 0.036926723827135292 -0.015399963279669776 -0.021400914438984224 -0.043858939111397648 -0.02182060080627881 -0.045771351186618979 -0.010292798493716636 -0.034735113206224001 -0.0256629211856076 -0.047137974368349857 -0.025623886013674595 -0.047207593847843045 -0.033834630474607018 -0.045772951039626961 -0.029123902238059298 -0.044426629396735182 -0.04725999401129629 -0.039506424789628104 -0.036508374952888299 -0.045797277652086479 -0.044146378354169638 -0.031481717353190282
leaf_weight=9.8042784035205859 7.0569494068622607 36.861169934272766 169.38766300678253 8.7874607443809492 253.53922770917416 57.224802240729332 8.1690770238637906 9.4875446408987028 9.7370069622993451 7.3212252706289291 9.1392825543880445 8.1902726739644987 7.0202337205409995 19.307146146893501 8.8798012286424619 14.216018065810205 13.764172673225401 7.4504730105400112 9.5876254588365573 12.55495825409889 13.089895352721213 234.82421919703484 11.624961346387865 10.92746366560459 13.028474271297453 7.9081219583749798 8.3885985016822797 19.541454747319221 9.5539306253194791 11.405976876616476
leaf_count=42 30 154 729 37 1059 239 35 40 41 31 39 35 30 83 38 61 59 32 41 54 56 1010 50 47 56 34 36 84 41 49
internal_value=0 -1.17373 -1.37967 -0.3295 2.3313 1.87567 -1.43744 0.782542 0.48804 -0.00806886 -1.21333 -0.910452 -1.12949 -1.24388 -1.20025 -1.26384 -1.29414 -1.12067 -1.51341 -1.47411 -1.29354 -1.50338 -1.35083 -1.22239 -1.37148 -1.32747 -1.029 -1.39802 -1.28813 -1.16409
internal_weight=0 683.413 646.552 33.8022 344.367 90.8275 612.749 33.6027 24.1152 14.3782 155.454 25.0148 15.2105 146.315 127.007 118.128 109.959 34.3045 457.295 287.908 20.5404 269.932 35.1074 22.5524 75.654 62.6255 17.9762 43.3114 23.7699 19.3141
internal_count=4372 2932 2778 144 1440 381 2634 142 102 61 667 107 65 628 545 507 472 147 1967 1238 88 1161 151 97 325 269 77 186 102 83
shrinkage=0.03


Tree=2
num_leaves=32
num_cat=0
split_feature=0 3 3 1 0 3 3 0 4 2 1 1 1 2 0 0 0 2 2 1 2 2 0 4 1 1 0 1 1 0 1
split_gain=2588.06 524.374 38.2588 25.6082 21.2712 56.2725 10.8032 9.22407 4.44173 3.52636 3.13829 3.25353 2.28638 1.86231 1.80987 1.11604 4.1966 1.04176 0.959938 0.736164 0.557444 1.57962 0.427277 0.541176 0.252122 0.281252 0.105459 0.0628929 0.404766 0.0409147 0.0338413
threshold=121.50000000000001 1.5000000000000002 1.0000000180025095e-35 6165.0000000000009 227.50000000000003 1.5000000000000002 1.0000000180025095e-35 30.500000000000004 63.500000000000007 1788.0000000000002 3765.0000000000005 7061.0000000000009 11856.000000000002 1513.5000000000002 87.500000000000014 2.5000000000000004 3.5000000000000004 2083.0000000000005 1595.5000000000002 291.50000000000006 1948.5000000000002 2503.5000000000005 6.5000000000000009 63.500000000000007 515.00000000000011 618.50000000000011 39.500000000000007 2877.0000000000005 3072.0000000000005 238.50000000000003 105.00000000000001
decision_type=2 2 2 2 2 2 2 2 2 2 2 2 2 2 2 2 2 2 2 2 2 2 2 2 2 2 2 2 2 2 2
left_child=1 2 3 13 5 6 -2 15 17 -8 -10 20 14 -1 18 -4 19 -9 -13 -17 26 -22 23 -18 -25 -26 -12 30 -29 -6 -24
right_child=4 -3 7 -5 29 -7 9 8 10 -11 11 12 -14 -15 -16 16 22 -19 -20 -21 21 -23 27 24 25 -27 -28 28 -30 -31 -32
leaf_value=-0.014825269619805279 0.050477449564134476 0.070826407102959024 -0.046405506158406412 0.033448614073047264 0.063892093482753487 0.072165073368681207 -0.00078906408712665986 -0.046701443600436175 -0.017687077535383865 0.022699124924890339 -0.037938595745408379 -0.035089158894433162 -0.039241770254255709 -0.033201830017027111 -0.010576471773066384 -0.020489003924396048 -0.045102399584190392 -0.036985617562230483 -0.02165869253593591 -0.034309264629060664 -0.02422360364210786 -0.042196982348526063 -0.039249662007402125 -0.03288319823601283 -0.046300263056610842 -0.035093263743970496 -0.04656980425094976 -0.033163582788651357 -0.043921934428915024 0.071885881155843698 -0.045337971538475026
leaf_weight=9.2960705906152779 8.6332038044929522 40.528448492288589 169.2456633746624 9.3373790979385358 7.5268419533967963 56.825607508420944 11.34250980615616 31.291190385818481 13.23736923933029 11.198686748743055 7.1300799697637585 10.184734538197523 12.204249709844587 12.988350093364714 8.165772393345831 7.9039112925529507 20.674277752637863 21.242395758628845 12.988953977823256 9.6958563029766065 8.0676654130220431 13.583443835377691 8.4947957694530469 13.122308105230333 7.8084993958473197 8.0357058644294721 14.720220997929571 6.8876722455024746 22.95890748500824 247.1717776954174 182.98249265551567
leaf_count=40 36 167 738 39 31 234 48 136 57 47 31 44 53 56 35 34 90 92 56 42 35 59 37 57 34 35 64 30 100 1018 797
internal_value=0 -1.12684 -1.34708 -0.270627 2.24103 1.81245 0.728196 -1.40266 -1.18656 0.358234 -1.05925 -1.12953 -0.928553 -0.855686 -0.777574 -1.47458 -1.43185 -1.42766 -0.923026 -0.942439 -1.32841 -1.18794 -1.46326 -1.35406 -1.24401 -1.36019 -1.46302 -1.48731 -1.38466 2.38871 -1.50278
internal_weight=0 682.776 642.248 31.6218 342.699 88 31.1744 610.626 152.816 22.5412 100.282 87.0451 43.5437 22.2844 31.3395 457.81 288.564 52.5336 23.1737 17.5998 43.5014 21.6511 270.965 49.6408 28.9665 15.8442 21.8503 221.324 29.8466 254.699 191.477
internal_count=4372 2958 2791 135 1414 365 131 2656 662 95 434 377 188 96 135 1994 1256 228 100 76 189 94 1180 216 126 69 95 964 130 1049 834
shrinkage=0.03


Tree=3
num_leaves=41
num_cat=0
split_feature=1 3 3 1 1 3 1 3 2 5 7 1 1 1 1 2 1 1 1 1 1 1 2 1 1 1 2 2 2 2 1 1 2 2 2 2 2 2 2 1
split_gain=2010.73 787.386 49.64 23.7734 21.2503 45.1982 9.48745 7.1392 7.27478 3.89782 2.91465 4.09311 2.69691 1.67403 1.65064 1.44858 1.43407 1.08103 2.06559 0.934938 0.843751 1.42239 0.564703 0.498412 0.39178 0.646547 0.619335 0.443011 1.22014 0.330331 0.299811 1.89624 0.227574 0.351113 0.142132 0.687373 0.554921 0.404509 0.0812988 0.00965118
threshold=14215.000000000002 1.5000000000000002 1.0000000180025095e-35 6165.0000000000009 28505.000000000004 1.5000000000000002 241.00000000000003 1.0000000180025095e-35 1701.5000000000002 1.0000000180025095e-35 1.5000000000000002 8855.0000000000018 11856.000000000002 1132.5000000000002 1199.0000000000002 2337.0000000000005 515.00000000000011 2760.5000000000005 3128.0000000000005 2924.0000000000005 3686.0000000000005 4469.0000000000009 2184.5000000000005 3422.5000000000005 2215.0000000000005 1776.0000000000002 14294.500000000002 617.50000000000011 857.00000000000011 3180.5000000000005 845.00000000000011 982.50000000000011 1745.5000000000002 1396.5000000000002 1595.5000000000002 2681.5000000000005 701.50000000000011 2156.5000000000005 1930.0000000000002 435.50000000000006
decision_type=2 2 2 2 2 2 2 2 2 2 2 2 2 2 2 2 2 2 2 2 2 2 2 2 2 2 2 2 2 2 2 2 2 2 2 2 2 2 2 2
left_child=1 2 3 13 5 7 -4 -2 -9 10 16 17 -13 -1 -11 -15 -8 24 -19 -18 -20 -22 -23 -21 25 26 27 -12 -29 30 -30 -32 33 -33 36 37 -25 38 -36 -3
right_child=4 39 6 -5 -6 -7 9 8 -10 14 11 12 -14 15 -16 -17 19 18 20 23 21 22 -24 34 -26 -27 -28 28 29 -31 31 32 -34 -35 35 -37 -38 -39 -40 -41
leaf_value=-0.0038036963888438643 0.044123148016811463 0.060926308933276774 -0.045389610586870868 0.041049962320342685 0.068919448074523992 0.069244745027524895 -0.029514328994043774 -0.0046463885321129357 0.029148868928459706 -0.034610458666188192 -0.043703282820953059 -0.013321626848429807 -0.037371584436921672 -0.028515450422664391 -0.016102205659464117 -0.010638457926634145 -0.044396885364676446 -0.018557057546389189 -0.043342179832667888 -0.030066133173006406 -0.022379560771701692 -0.039897478166639161 -0.029673645429795843 -0.034372482457094879 -0.043970766183252387 -0.030055169864541518 -0.045844541237022945 -0.024448747261663652 -0.040979365452312941 -0.031533885040697901 -0.022976799641069842 -0.040349504271314125 -0.043672783100188003 -0.029113257537090324 -0.03266726744206673 -0.043946734414455159 -0.046093083935249399 -0.026943363308234273 -0.04191778422809659 0.068883037381277795
leaf_weight=6.9526051282882717 11.626580670475958 7.3602283000946036 188.52855698764324 8.4591553062200529 226.32534259557724 51.06285135447979 10.761201083660124 9.6570205241441744 13.636412709951399 7.9760652631521252 14.074176296591757 12.48425939679146 6.851763203740119 11.339781597256662 11.751135751605032 7.4155194759368888 79.755644649267197 8.5048979222774488 11.595553979277609 7.7141653895378104 10.055642977356909 19.570547923445705 10.769885316491125 7.7602104842662838 15.888162747025488 12.996417939662932 12.494733244180678 8.2393150180578214 40.540642604231834 12.314325928688048 8.9316756427288038 10.900958895683294 14.065920844674109 6.8798585087060919 6.8373864293098467 13.696899443864821 18.910745710134506 7.7920513153076163 7.1019197255373001 62.824003875255585
leaf_count=30 48 30 833 35 922 208 47 41 57 35 62 54 30 49 51 32 352 37 51 34 44 86 47 34 70 57 55 36 178 54 39 48 62 30 30 60 83 34 31 256
internal_value=0 -0.909402 -1.25824 -0.0823856 2.13525 1.70749 -1.3244 0.826286 0.500307 -1.23894 -1.2609 -1.18726 -0.733298 -0.563632 -0.79125 -0.720238 -1.36921 -1.2271 -1.1008 -1.39627 -1.17776 -1.09865 -1.21224 -1.2993 -1.27503 -1.25291 -1.27753 -1.24966 -1.22007 -1.25465 -1.28424 -1.20052 -1.31928 -1.20569 -1.3346 -1.26258 -1.42651 -1.13047 -1.25318 2.26971
internal_weight=0 710.096 639.912 34.1671 312.308 85.9829 605.745 34.92 23.2934 417.216 397.489 237.159 19.336 25.7079 19.7272 18.7553 160.33 217.823 60.4965 149.569 51.9916 40.3961 30.3404 69.8134 157.326 141.438 128.442 115.947 101.873 93.6334 81.3191 40.7784 31.8467 17.7808 62.0992 35.4283 26.671 21.7314 13.9393 70.1842
internal_count=4372 3096 2810 146 1276 354 2664 146 98 1831 1745 1040 84 111 86 81 705 956 265 658 228 177 133 306 691 621 564 509 447 411 357 179 140 78 272 155 117 95 61 286
shrinkage=0.03


Tree=4
num_leaves=26
num_cat=0
split_feature=0 3 3 1 0 3 5 0 4 1 1 1 0 1 1 0 0 0 1 1 0 0 4 1 0
split_gain=2289.06 432.24 42.5804 33.3229 22.4337 55.6731 56.3726 12.0773 5.64373 2.38349 1.62342 3.25295 1.71118 0.724434 0.689391 0.672508 5.24085 0.558813 0.517287 0.42884 1.89986 0.210199 0.0490314 0.0329437 0.0283571
threshold=120.50000000000001 1.5000000000000002 1.0000000180025095e-35 6165.0000000000009 238.50000000000003 1.5000000000000002 1.0000000180025095e-35 30.500000000000004 63.500000000000007 3765.0000000000005 7207.0000000000009 11856.000000000002 87.500000000000014 19115.000000000004 2019.0000000000002 2.5000000000000004 3.5000000000000004 68.500000000000014 277.00000000000006 6165.0000000000009 41.500000000000007 37.500000000000007 61.500000000000007 1102.0000000000002 10.500000000000002
decision_type=2 2 2 2 2 2 2 2 2 2 2 2 2 2 2 2 2 2 2 2 2 2 2 2 2
left_child=1 2 3 14 5 6 13 15 22 -10 19 12 17 -2 23 -4 18 -12 -17 20 21 -11 -9 -1 -18
right_child=4 -3 7 -5 -6 -7 -8 8 9 10 11 -13 -14 -15 -16 16 24 -19 -20 -21 -22 -23 -24 -25 -26
leaf_value=-0.016003898245916613 -0.0063051407220183044 0.065283595376579975 -0.044945214554522134 0.042627733313669113 0.066604902677545874 0.066625404310939412 0.064880713331644732 -0.045501114412565574 -0.016254480235587215 -0.034569128184668611 -0.019495756460359642 -0.040112557828746113 -0.0091630206316622512 -0.018322233094293722 -0.030970912434385392 -0.019066306801428203 -0.041972735059460746 -0.030470048664615976 -0.030929169405785342 -0.040692335620869428 -0.022831719752642244 -0.045077300709929678 -0.039824802321541786 -0.022368882191010325 -0.044069486566221353
leaf_weight=6.907280772924425 14.021353185176851 38.086328983306885 164.74811173975468 9.228352338075636 251.56021812558174 63.853945031762123 14.986802309751509 11.511050656437872 13.02883532643318 8.344478055834772 10.23749196529389 11.47450043261051 8.7830262780189496 7.6658361852169028 9.8448152393102628 7.7771064490079906 116.2137772589922 11.614157423377035 10.194395273923872 12.82586160302162 11.946184217929838 7.1862132996320716 41.673518255352974 7.562645748257637 145.90366707742214
leaf_count=30 59 154 739 38 1017 258 62 51 57 37 45 51 38 32 43 34 519 51 45 57 53 32 185 33 652
internal_value=0 -1.09384 -1.29263 -0.193016 2.05942 1.65619 0.670314 -1.35462 -1.1049 -0.955938 -1.02019 -0.873303 -0.696325 -0.356373 -0.809679 -1.43782 -1.40197 -0.848863 -0.865416 -1.17119 -1.08109 -1.32082 -1.37033 -0.651262 -1.43838
internal_weight=0 665.092 627.005 33.5431 352.088 100.528 36.674 593.462 148.625 95.4407 82.4119 42.1092 30.6347 21.6872 24.3147 444.837 280.089 21.8516 17.9715 40.3027 27.4769 15.5307 53.1846 14.4699 262.117
internal_count=4372 2944 2790 144 1428 411 153 2646 657 421 364 185 134 91 106 1989 1250 96 79 179 122 69 236 63 1171
shrinkage=0.03


Tree=5
num_leaves=31
num_cat=0
split_feature=0 3 3 1 0 3 0 2 0 5 0 0 1 1 2 0 2 0 0 1 1 2 1 2 2 0 0 2 2 0
split_gain=2209.99 383.496 45.9979 25.7836 19.8748 49.6333 9.76528 6.94477 6.95813 1.724 1.91461 1.4833 2.24164 1.94257 2.1908 1.20435 0.849936 0.758255 5.27072 1.79674 0.567273 1.34422 1.84629 0.472154 0.915004 0.173647 0.152239 0.0797942 0.899649 0.0143729
threshold=120.50000000000001 1.5000000000000002 1.0000000180025095e-35 6165.0000000000009 217.50000000000003 1.5000000000000002 30.500000000000004 2608.5000000000005 145.50000000000003 1.0000000180025095e-35 33.500000000000007 59.500000000000007 11856.000000000002 9037.0000000000018 1628.5000000000002 183.50000000000003 2681.5000000000005 2.5000000000000004 3.5000000000000004 291.50000000000006 8108.0000000000009 1051.5000000000002 7061.0000000000009 1105.0000000000002 1636.5000000000002 13.500000000000002 6.5000000000000009 2476.5000000000005 2015.5000000000002 21.500000000000004
decision_type=2 2 2 2 2 2 2 2 2 2 2 2 2 2 2 2 2 2 2 2 2 2 2 2 2 2 2 2 2 2
left_child=1 2 3 16 5 7 17 8 -2 10 -8 23 13 20 -15 -10 25 -4 19 -19 21 -13 -23 -12 -25 -1 -20 28 -26 -28
right_child=4 -3 6 -5 -6 -7 9 -9 15 -11 11 12 -14 14 -16 -17 -18 18 26 -21 -22 22 -24 24 27 -27 29 -29 -30 -31
leaf_value=-0.019715534259886872 -0.013519644297290941 0.062031461516271924 -0.04427846965982829 0.040271966428345359 0.063862175901572407 0.064237924300680524 -0.020445697797587089 0.042152572414179197 0.012619498553988829 -0.018609665714539612 -0.044772381499292219 -0.018002389269632674 -0.042678496527988503 -0.03195671547936766 -0.01081788178428683 0.029609447231002457 -0.010834323563055951 -0.014533895895112146 -0.039774562388521131 -0.034696681976917117 -0.041188232874785569 -0.042482318404799699 -0.022623106946871436 -0.029681461762774357 -0.044656610349040796 -0.029000983745809523 -0.043527209914085561 -0.043023336661904131 -0.027678833962718648 -0.040794414450262322
leaf_weight=6.8555488884449058 7.7816563844680813 36.315409034490585 163.794125020504 9.0464845150709134 272.61675001680851 57.492841511964798 9.6678632497787458 8.0014406591653806 9.0781841129064578 7.7335888147354117 13.991096094250677 6.7044664472341564 14.639900356531141 8.6441255956888217 10.246565029025076 7.7534364908933631 6.8464306145906439 8.6407072395086306 48.235232204198837 8.7317754030227643 8.2542761117219907 11.840678811073305 7.9035542160272589 13.972324714064596 7.3420100212097186 7.2523332685232162 162.69844873249531 16.239181935787201 6.9448907077312469 46.591213226318359
leaf_count=30 33 146 746 37 1096 231 43 33 38 34 63 30 66 38 45 32 30 38 218 39 37 53 35 63 33 32 738 73 31 211
internal_value=0 -1.08866 -1.27587 -0.0648231 1.9931 1.5816 -1.33804 0.591975 0.323581 -1.10896 -1.13594 -1.16982 -1.06125 -0.960674 -0.688318 0.68747 -0.677127 -1.41307 -1.37525 -0.828027 -1.10605 -1.01898 -1.15616 -1.29476 -1.23037 -0.823383 -1.41177 -1.33739 -1.22046 -1.43111
internal_weight=0 649.132 612.817 30.0008 362.724 90.1076 582.816 32.6147 24.6133 144.125 136.391 126.723 68.2336 53.5937 18.8907 16.8316 20.9543 438.692 274.897 17.3725 34.703 26.4487 19.7442 58.4895 44.4984 14.1079 257.525 30.5261 14.2869 209.29
internal_count=4372 2909 2763 129 1463 367 2634 136 103 644 610 567 304 238 83 70 92 1990 1244 77 155 118 88 263 200 62 1167 137 64 949
shrinkage=0.03


Tree=6
num_leaves=42
num_cat=0
split_feature=1 3 3 1 3 1 1 3 2 5 7 1 1 1 2 1 1 1 2 1 1 7 1 4 2 2 1 1 2 2 4 2 2 2 1 1 1 1 1 1 1
split_gain=1655.46 667.321 59.2169 18.4022 39.064 15.0723 9.26787 7.33404 5.9021 3.57246 3.08862 3.38481 3.03458 3.59278 2.81254 2.45804 2.21631 1.7324 1.36635 1.06504 0.648813 0.640749 0.673162 0.476748 0.416265 0.93105 0.879699 0.519846 0.672004 0.405898 0.444982 0.764379 0.315994 0.555535 1.0064 0.301686 0.421347 0.269094 1.36013 0.0925479 0.0147493
threshold=14215.000000000002 1.5000000000000002 1.0000000180025095e-35 28505.000000000004 1.5000000000000002 6165.0000000000009 2535.0000000000005 1.0000000180025095e-35 1935.5000000000002 1.0000000180025095e-35 1.5000000000000002 8855.0000000000018 262.50000000000006 303.50000000000006 1513.5000000000002 3974.0000000000005 3530.5000000000005 11716.000000000002 2681.5000000000005 3128.0000000000005 2815.0000000000005 1.5000000000000002 532.50000000000011 63.500000000000007 1548.5000000000002 617.50000000000011 585.00000000000011 1684.0000000000002 3057.5000000000005 1105.0000000000002 63.500000000000007 2824.5000000000005 10714.500000000002 1595.5000000000002 7920.0000000000009 967.50000000000011 1253.0000000000002 7722.0000000000009 4891.0000000000009 1776.0000000000002 329.00000000000006
decision_type=2 2 2 2 2 2 2 2 2 2 2 2 2 2 2 2 2 2 2 2 2 2 2 2 2 2 2 2 2 2 2 2 2 2 2 2 2 2 2 2 2
left_child=1 2 5 4 7 14 12 -2 -9 10 23 15 -4 -14 -1 16 19 -13 -16 20 -12 22 -15 -8 25 -23 -27 -26 -29 -17 -31 -32 33 34 -25 -28 -37 38 -35 -38 -3
right_child=3 40 6 -5 -6 -7 9 8 -10 -11 11 17 13 21 18 29 -18 -19 -20 -21 -22 24 -24 32 27 26 35 28 -30 30 31 -33 -34 37 -36 36 39 -39 -40 -41 -42
leaf_value=0.0018053604196676207 0.040606361574540659 0.054294916991473124 -0.043438059990746403 0.061838397109859083 0.062113545603896023 0.033519281852556197 -0.044060275745839692 -0.0043129595234749898 0.025791680329936929 -0.013368770756920292 -0.032069962305182671 -0.0098739369028755988 -0.0170363351167141 -0.030403529554467876 -0.027092733721805231 -0.044185666339368032 -0.0097045939967527108 -0.02896363637269999 -0.0091592768596252105 -0.040283330025765791 -0.017920407481546771 -0.042022181054968903 -0.042292463165318039 -0.042704917824097452 -0.040582785419182588 -0.02363612548930576 -0.040949216363973868 -0.039112689336708917 -0.025972852525216934 -0.041264394736081199 -0.024585564510947341 -0.039705940147137811 -0.044038556655739414 -0.036043913477942092 -0.028049340594567998 -0.026291686368468618 -0.040271396248929808 -0.037548704408121081 -0.018785218190072752 -0.031274534507026261 0.061821317781075684
leaf_weight=10.335757076740267 11.079421222209929 7.4859872460365287 188.35931639373302 228.43468935787678 50.438252508640289 9.6051639616489393 13.109206721186636 11.545538023114206 11.61534336209297 9.2694209367036802 7.0742256641387993 11.59423963725567 7.5735992193222037 6.5912786424159995 7.9262699633836773 10.093647688627241 6.7061036676168433 7.5327920317649832 8.734354153275488 7.2373338192701331 7.588999330997467 15.043989911675451 72.232084035873413 19.281294226646427 64.480779841542244 10.131151422858236 9.2200803458690626 10.983420580625536 8.1265462040901166 9.6691525876522064 9.0622680783271772 6.6161975264549264 7.2364274412393561 10.979759708046918 7.3072746843099585 9.5242422670125979 7.8631729632616025 8.0523108839988691 8.1835693269968015 7.0141856819391251 63.909730285406113
leaf_count=45 45 30 870 915 202 39 60 49 48 41 32 51 34 30 35 46 30 34 38 33 34 69 333 88 295 46 42 50 37 44 41 30 33 50 33 43 36 36 37 32 256
internal_value=0 -0.858859 -1.19217 1.91247 1.50986 0.0390451 -1.26954 0.681145 0.355173 -1.06727 -1.10326 -0.965691 -1.35008 -1.26908 -0.340891 -1.07783 -0.848861 -0.584962 -0.595705 -1.00517 -0.831714 -1.29264 -1.37788 -1.25623 -1.24475 -1.16255 -1.07837 -1.30137 -1.12273 -1.25982 -1.17104 -1.03859 -1.20897 -1.17228 -1.293 -1.16293 -1.08249 -1.05067 -0.961008 -1.20771 2.03581
internal_weight=0 691.735 620.34 313.113 84.6786 36.6015 583.738 34.2403 23.1609 166.594 157.325 83.175 417.144 228.785 26.9964 64.0479 28.6067 19.127 16.6606 21.9006 14.6632 221.211 78.8234 74.1498 142.388 58.7968 43.7528 83.5907 19.11 35.4413 25.3476 15.6785 61.0406 53.8042 26.5886 33.6217 24.4016 27.2156 19.1633 14.8774 71.3957
internal_count=4372 3113 2827 1259 344 157 2670 142 97 753 712 375 1917 1047 118 290 129 85 73 99 66 1013 363 337 650 268 199 382 87 161 115 71 277 244 121 153 111 123 87 68 286
shrinkage=0.03


Tree=7
num_leaves=30
num_cat=0
split_feature=0 3 3 0 0 3 5 0 2 5 4 2 2 2 2 2 2 0 0 0 2 2 0 4 2 0 2 3 5
split_gain=1970.23 373.637 29.7032 33.6725 13.1483 32.8399 37.2717 8.35362 6.62696 2.34945 2.4234 1.69607 3.17285 1.48926 2.30669 1.19745 0.897697 1.4699 0.658658 2.5207 0.654958 0.65062 0.596528 0.420573 0.399779 0.126338 0.0464235 0.0386034 0.0261997
threshold=121.50000000000001 1.5000000000000002 1.0000000180025095e-35 54.500000000000007 238.50000000000003 1.5000000000000002 1.0000000180025095e-35 30.500000000000004 2389.5000000000005 1.0000000180025095e-35 63.500000000000007 14294.500000000002 2156.5000000000005 1930.0000000000002 1570.0000000000002 2582.5000000000005 1132.5000000000002 66.500000000000014 2.5000000000000004 3.5000000000000004 1513.5000000000002 2083.0000000000005 5.5000000000000009 63.500000000000007 5429.5000000000009 56.500000000000007 3115.0000000000005 1.0000000180025095e-35 2.0000000000000004
decision_type=2 2 2 2 2 2 2 2 2 2 2 2 2 2 2 2 2 2 2 2 2 2 2 2 2 2 2 2 2
left_child=1 2 3 20 5 6 8 18 -2 10 21 12 13 14 16 -14 17 -12 -4 -20 -1 -9 23 -21 -17 -18 -23 -8 -6
right_child=4 -3 7 -5 28 -7 27 9 -10 -11 11 -13 15 -15 -16 24 25 -19 19 22 -22 26 -24 -25 -26 -27 -28 -29 -30
leaf_value=-0.020975950707592436 -0.014013457533228026 0.058218683631961879 -0.043056645333310502 0.042761849167298305 0.060272822595453614 0.060198992684978019 0.054055215587875169 -0.042711398539403832 0.021294733588824256 -0.016640919652142726 -0.037058225082388235 -0.043899126937147363 -0.0090276172959947928 -0.044203277912469127 -0.017081607895064094 -0.029559076900048189 -0.034485766001859701 -0.021565696030881376 -0.028139928294014859 -0.0412385632447934 -0.033291469160496072 -0.030164535352053028 -0.041590977650989978 -0.032628374924966015 -0.017890059022222495 -0.044217706619547437 -0.037510933057888149 0.063928430815519272 0.053793842028589188
leaf_weight=8.4186088293790871 13.747075915336611 38.995756596326828 157.96098253130913 8.3696593344211561 244.65670451521873 63.24883060157299 8.1843155324459058 29.363681346178055 7.3188667446374884 8.3412320762872678 13.433183178305628 8.9326934814453107 7.5653307735919979 10.095148950815199 9.9055094271898252 8.1468873769044858 6.5267455726861945 11.720035851001738 16.368213891983032 13.95104433596134 12.367288172245024 8.7281346917152423 218.66385985910892 19.004376709461212 6.8284537196159354 8.7880683094263059 9.5655605345964414 7.7676030844449988 9.4979934245347959
leaf_count=37 58 156 743 34 979 253 33 136 30 37 62 41 34 46 45 37 30 53 74 65 55 40 1021 88 31 40 44 32 38
internal_value=0 -1.05829 -1.25238 -0.263428 1.879 1.56772 0.815088 -1.30245 -0.0534682 -1.09439 -1.12592 -1.02604 -0.977778 -1.09956 -1.02265 -0.646643 -1.13112 -0.998627 -1.37448 -1.3383 -0.948261 -1.31652 -1.36395 -1.21215 -0.814619 -1.3422 -1.139 1.96836 2.00142
internal_weight=0 642.04 603.045 29.1556 354.421 100.267 37.0179 573.889 21.0659 147.941 139.599 91.9421 83.0094 60.4687 50.3735 22.5407 40.468 25.1532 425.948 267.987 20.7859 47.6574 251.619 32.9554 14.9753 15.3148 18.2937 15.9519 254.155
internal_count=4372 2949 2793 126 1423 406 153 2667 88 676 639 419 378 276 230 102 185 115 1991 1248 92 220 1174 153 68 70 84 65 1017
shrinkage=0.03


Tree=8
num_leaves=31
num_cat=0
split_feature=0 3 3 1 0 3 0 0 2 5 0 0 0 2 1 0 0 0 0 1 0 0 1 1 1 0 1 0 1 1
split_gain=1816.04 386.764 30.3683 25.1774 13.9961 36.6418 9.61983 3.26241 2.97873 2.7765 2.31015 6.20293 2.10907 1.73758 0.938783 1.78379 0.870127 1.68807 0.64288 0.512722 0.891667 0.35766 0.655998 1.02997 0.156776 0.0933851 0.0578455 0.518049 0.0415448 0.0231496
threshold=121.50000000000001 1.5000000000000002 1.0000000180025095e-35 5495.0000000000009 223.50000000000003 1.5000000000000002 30.500000000000004 169.50000000000003 2321.5000000000005 1.0000000180025095e-35 77.500000000000014 99.500000000000014 32.500000000000007 1730.0000000000002 7061.0000000000009 67.500000000000014 2.5000000000000004 6.5000000000000009 90.500000000000014 3974.0000000000005 55.500000000000007 3.5000000000000004 423.00000000000006 515.00000000000011 637.00000000000011 109.50000000000001 4965.0000000000009 48.500000000000007 291.50000000000006 112.50000000000001
decision_type=2 2 2 2 2 2 2 2 2 2 2 2 2 2 2 2 2 2 2 2 2 2 2 2 2 2 2 2 2 2
left_child=1 2 3 13 5 7 16 8 -2 10 12 18 -8 -1 19 -16 -4 21 -12 20 -14 28 -23 -24 -25 -13 -21 -28 -18 -19
right_child=4 -3 6 -5 -6 -7 9 -9 -10 -11 11 25 14 -15 15 -17 17 29 -20 26 -22 22 23 24 -26 -27 27 -29 -30 -31
leaf_value=-0.016851485701830336 0.00048554043343523808 0.056704445425012184 -0.042494572188301147 0.030527334814075411 0.058194722737354515 0.058406347392705955 -0.018301011175516965 0.030045576731541606 0.025011708373880219 -0.014383398873223397 -0.019283163694230068 -0.042970086934173299 -0.028209415667278314 -0.034502476807930831 -0.02207060174129219 -0.040345027684671575 -0.025721195260189317 -0.035020747377312887 -0.0078590704175311946 -0.043152982955259302 -0.043181109777772994 -0.04285508633303587 -0.024230684581734146 -0.040501928274049477 -0.032076035938234458 -0.034749480995726577 -0.03124917516886859 -0.04162579134930737 -0.032951765648619603 -0.040897734949179372
leaf_weight=10.558425560593607 11.382427766919138 42.98366804420948 155.70924094319344 10.282324165105818 262.04080657660961 59.958160936832428 7.0072152465581885 13.689364850521086 7.6087967306375495 8.7557883113622648 11.908206805586817 8.5141898393630999 13.606901377439501 11.580850839614866 12.24979178607464 9.4932287782430631 7.9802690744400051 7.9916001558303824 8.9151497632265073 19.575573414564133 6.654325619339942 12.898313805460928 9.4444066137075442 13.086406320333483 8.4557969570159894 10.323182508349417 9.8897711187601107 18.557780414819717 8.4503862112760526 189.24510292708874
leaf_count=47 48 172 745 42 1049 240 32 56 31 39 54 40 63 52 56 44 36 38 40 92 31 61 44 62 40 48 46 87 39 898
internal_value=0 -1.00515 -1.21584 -0.271014 1.82047 1.48177 -1.27049 0.625387 0.348996 -1.04623 -1.08181 -0.868427 -1.16799 -0.874002 -1.21031 -1.00625 -1.34918 -1.3081 -0.48454 -1.27382 -1.10915 -1.15038 -1.20911 -1.11456 -1.24446 -1.28748 -1.34121 -1.27079 -0.987417 -1.35583
internal_weight=0 634.118 591.134 32.4216 354.68 92.6388 558.713 32.6806 18.9912 145.451 136.695 39.6607 97.0346 22.1393 90.0274 21.743 413.262 257.552 20.8234 68.2844 20.2612 60.3156 43.8849 30.9866 21.5422 18.8374 48.0231 28.4476 16.4307 197.237
internal_count=4372 2948 2776 141 1424 375 2635 135 79 672 633 182 451 99 419 100 1963 1218 94 319 94 282 207 146 102 88 225 133 75 936
shrinkage=0.03


Tree=9
num_leaves=34
num_cat=0
split_feature=0 3 3 0 3 0 2 3 0 1 4 1 0 0 2 2 0 2 2 2 2 1 2 0 4 0 0 0 0 0 1 0 0
split_gain=1744.54 319.121 30.4875 20.5706 44.9197 12.7686 7.5612 7.50138 6.80384 5.95479 3.1451 2.44189 1.1888 5.11545 1.07739 2.83024 2.70943 1.97194 0.896076 0.880371 2.77176 0.803776 0.786422 0.415259 0.287174 0.591312 0.237635 0.162615 0.182005 0.0797329 0.0438887 0.0310727 0.0830649
threshold=118.50000000000001 1.5000000000000002 1.0000000180025095e-35 219.00000000000003 1.5000000000000002 55.500000000000007 2681.5000000000005 1.0000000180025095e-35 30.500000000000004 14784.000000000002 63.500000000000007 3765.0000000000005 2.5000000000000004 3.5000000000000004 1595.5000000000002 3888.5000000000005 56.500000000000007 2113.5000000000005 1132.5000000000002 2634.5000000000005 1513.5000000000002 291.50000000000006 2083.0000000000005 66.500000000000014 63.500000000000007 6.5000000000000009 238.50000000000003 66.500000000000014 39.500000000000007 21.500000000000004 435.50000000000006 26.500000000000004 24.500000000000004
decision_type=2 2 2 2 2 2 2 2 2 2 2 2 2 2 2 2 2 2 2 2 2 2 2 2 2 2 2 2 2 2 2 2 2
left_child=1 2 5 4 6 19 7 -2 12 -9 22 -12 -4 21 18 16 -16 -18 23 20 -1 -14 -10 -13 -15 -26 -5 28 -24 -27 -3 32 -31
right_child=3 30 8 26 -6 -7 -8 9 10 -11 11 14 13 24 15 -17 17 -19 -20 -21 -22 -23 27 -25 25 29 -28 -29 -30 31 -32 -33 -34
leaf_value=-0.010309893570519641 0.031994323019197336 0.049176058084004916 -0.041957993514128253 0.049364437130938056 0.056793232715495523 0.025166952349161276 0.039082349108108254 -0.0251028552217205 -0.041806997321413193 0.008838973517898403 -0.014896036820411891 -0.034980920369940167 -0.013865932900853122 -0.041155310944531592 -0.031064825208991655 -0.036469774005357197 -0.021441832944892388 0.00023847475844484167 -0.041086375663531176 -0.0086015563267234346 -0.03601764067357352 -0.028430368520080813 -0.034437331357291739 -0.025125001214432344 -0.033177003354568017 -0.040094175396834623 0.056775104888379724 -0.038630794791720803 -0.024337453757181726 -0.03678587449321178 0.057090224242004002 -0.039767379748842598 -0.028545813721614455
leaf_weight=8.553260684013372 7.9113595485687283 7.4868615865707389 150.52778002619743 10.473099663853644 57.821328833699226 8.166505351662634 8.7581896483898145 6.9091616272926357 28.617552354931831 14.131125122308729 11.344563379883764 11.588960066437723 7.9179310500621822 92.537452861666679 12.217634037137033 17.501975730061531 8.0443403273820859 6.6090019494295111 13.87085537612438 6.6702821254730216 7.4352434724569312 8.1410603374242765 7.0342055410146731 11.263917684555052 25.171089008450508 92.098267242312431 259.25360882282257 6.6423664093017569 6.4130218625068665 11.005648151040083 28.930193737149239 12.043428838253019 6.5056907385587683
leaf_count=38 32 30 733 42 232 33 36 30 136 59 52 55 36 446 57 82 37 30 65 30 34 38 33 52 120 445 1040 31 30 53 116 58 31
internal_value=0 -1.01855 -1.19958 1.74113 1.33874 -0.227986 0.486057 0.235546 -1.25414 -0.0721395 -1.06138 -0.948722 -1.32091 -1.27474 -1.01075 -0.895246 -0.682828 -0.381959 -1.14758 -0.616917 -0.748419 -0.714538 -1.27314 -1.00848 -1.31191 -1.27345 1.88328 -1.09661 -0.994792 -1.3073 1.85152 -1.213 -1.12986
internal_weight=0 614.339 577.922 365.258 95.5312 30.8253 37.7098 28.9516 547.097 21.0403 141.148 92.4412 405.948 255.421 81.0967 44.373 26.871 14.6533 36.7237 22.6588 15.9885 16.059 48.7071 22.8529 239.362 146.824 269.727 20.0896 13.4472 121.653 36.4171 29.5548 17.5113
internal_count=4372 2901 2755 1471 389 135 157 121 2620 89 660 430 1960 1227 378 206 124 67 172 102 72 74 230 107 1153 707 1082 94 63 587 146 142 84
shrinkage=0.03


Tree=10
num_leaves=33
num_cat=0
split_feature=0 3 3 1 0 3 5 0 4 0 0 0 1 1 0 0 0 1 0 0 4 1 1 1 1 1 1 0 0 0 5 1
split_gain=1673.36 320.373 28.0219 13.9307 11.9756 31.3488 29.3316 6.64752 3.97486 3.04446 1.17693 2.57267 1.08564 1.09652 1.73023 1.03289 3.06368 0.672149 1.41636 0.455937 0.581481 0.474044 0.516049 0.309745 0.779422 0.274712 0.256117 0.182158 0.145819 0.127628 0.0183985 0.000307408
threshold=119.50000000000001 1.5000000000000002 1.0000000180025095e-35 6165.0000000000009 227.50000000000003 1.5000000000000002 1.0000000180025095e-35 30.500000000000004 63.500000000000007 160.50000000000003 99.500000000000014 90.500000000000014 3765.0000000000005 7207.0000000000009 68.500000000000014 2.5000000000000004 3.5000000000000004 6165.0000000000009 41.500000000000007 6.5000000000000009 63.500000000000007 515.00000000000011 618.50000000000011 3974.0000000000005 1909.0000000000002 291.50000000000006 1102.0000000000002 78.500000000000014 25.500000000000004 37.500000000000007 2.0000000000000004 105.00000000000001
decision_type=2 2 2 2 2 2 2 2 2 2 2 2 2 2 2 2 2 2 2 2 2 2 2 2 2 2 2 2 2 2 2 2
left_child=1 2 3 26 5 6 9 15 23 -2 11 12 -10 17 -15 -4 25 18 29 20 -18 -22 -23 24 -9 -17 -1 -16 -28 -14 -6 -21
right_child=4 -3 7 -5 30 -7 -8 8 10 -11 -12 -13 13 14 27 16 19 -19 -20 31 21 22 -24 -25 -26 -27 28 -29 -30 -31 -32 -33
leaf_value=-0.013483287381084017 0.0067415314556421562 0.053422245996734195 -0.041451815773281463 0.026346312510046002 0.055303539029740285 0.055322983531430239 0.054032133969945967 -0.039834499484769068 -0.018443366450909646 -0.016451552924277326 -0.037360738995917221 -0.0090925107869806107 -0.032251659311605493 -0.012922196053028962 -0.025381712337599022 -0.018985247773932235 -0.040184809010584625 -0.039697900719134899 -0.022040558425215562 -0.034230297651258207 -0.02596439317647542 -0.041756258583297477 -0.028119552967319265 -0.041414456355918325 -0.025444855966205153 -0.028988456971411461 -0.025260188107624648 -0.035406734262741595 -0.01703955349662761 -0.041742656105886428 0.049204813101590299 -0.039741679217963101
leaf_weight=6.6985791027545991 12.108780547976496 38.780320301651955 146.21927423775196 7.9606463015079489 251.60385006666183 61.566766053438187 13.356674402952192 11.867099449038507 10.646429002285002 8.6970137506723386 11.516234293580053 7.5731140226125708 8.7972340732812899 8.8397364765405673 6.8212509304285032 7.2191585302352896 17.585719406604767 11.816468030214308 13.048337355256079 8.1513097286224347 10.888008996844293 8.1984795331954938 6.5858117491006842 27.863843217492104 6.9677661657333365 8.6857650429010373 9.4599098563194293 7.0063876062631607 6.6144396662712088 6.3724961578845969 9.6902549564838392 189.96780663728714
leaf_count=30 51 156 725 32 1013 248 54 57 49 36 55 34 42 41 32 33 86 57 62 40 52 40 32 134 33 41 43 32 30 31 39 932
internal_value=0 -0.999931 -1.18818 -0.255151 1.72413 1.41695 0.644218 -1.24084 -1.04868 -0.09364 -0.924702 -0.877832 -0.935811 -0.988725 -0.796206 -1.30685 -1.26391 -1.09523 -0.996197 -1.29266 -1.17582 -1.0598 -1.19615 -1.29196 -1.15568 -0.821223 -0.655728 -1.02261 -0.73547 -1.21455 1.83629 -1.31767
internal_weight=0 612.152 573.371 30.7336 357.023 95.7292 34.1625 542.638 139.136 20.8058 92.4377 80.9215 73.3483 62.7019 22.6674 403.501 257.282 40.0345 28.2181 241.377 43.258 25.6723 14.7843 46.6987 18.8349 15.9049 22.7729 13.8276 16.0743 15.1697 261.294 198.119
internal_count=4372 2931 2775 135 1441 389 141 2640 659 87 435 380 346 297 105 1981 1256 192 135 1182 210 124 72 224 90 74 103 64 73 73 1052 972
shrinkage=0.03


Tree=11
num_leaves=33
num_cat=0
split_feature=0 3 3 1 0 3 0 3 4 7 0 0 0 2 2 2 2 0 0 1 2 2 1 2 0 4 1 1 0 1 0 2
split_gain=1548.32 319.429 35.4348 19.1588 13.9426 35.1345 9.67126 8.65275 4.32069 3.17083 2.39711 6.39477 2.48677 1.99934 1.95376 1.03457 1.01782 0.921687 1.97983 0.891679 1.12009 0.886577 0.700903 0.414466 0.285094 0.273693 1.12967 1.8425 0.254283 0.322861 0.172394 0.0756135
threshold=121.50000000000001 1.5000000000000002 1.0000000180025095e-35 6165.0000000000009 238.50000000000003 1.5000000000000002 30.500000000000004 1.0000000180025095e-35 63.500000000000007 1.5000000000000002 74.500000000000014 98.500000000000014 38.500000000000007 1595.5000000000002 1701.5000000000002 2211.5000000000005 2211.5000000000005 2.5000000000000004 3.5000000000000004 1035.5000000000002 2337.0000000000005 2015.5000000000002 277.00000000000006 4969.5000000000009 55.500000000000007 63.500000000000007 515.00000000000011 423.00000000000006 21.500000000000004 3072.0000000000005 59.500000000000007 933.50000000000011
decision_type=2 2 2 2 2 2 2 2 2 2 2 2 2 2 2 2 2 2 2 2 2 2 2 2 2 2 2 2 2 2 2 2
left_child=1 2 3 19 5 7 17 -2 15 13 12 -12 -11 31 -9 -8 24 -4 22 -1 -21 -15 -19 -23 -14 -20 27 -27 -28 -30 -17 -10
right_child=4 -3 6 -5 -6 -7 8 14 9 10 11 -13 16 21 -16 30 -18 18 25 20 -22 23 -24 -25 -26 26 28 -29 29 -31 -32 -33
leaf_value=-0.0085312985970952791 0.037532638153213609 0.053625549827780859 -0.041182396139796885 0.033021480328379517 0.053783446513642467 0.053991323474127786 -0.040838885707611197 -0.0022500589650532904 -0.034259255858723275 -0.0084199765269434238 0.0063252033280603919 -0.03306766202114278 -0.028446074611040907 -0.015229719826665079 0.014510254079952458 -0.02637507129697933 -0.019395112354434172 -0.019261451834801085 -0.040224668353431296 -0.028935625705199995 -0.011969845541828552 -0.033981463518026708 -0.033093586409358305 -0.022785474189537067 -0.038808508410701867 -0.038720826480719034 -0.039544860358885568 -0.019599992636157044 -0.030465457041862903 -0.039096864534908939 -0.035090690274447722 -0.042474997756762764
leaf_weight=6.6597281247377422 12.429670065641401 39.338317781686783 142.93568307161331 8.9715523123741132 253.29114772379398 63.467597663402557 29.902353048324585 11.398942083120348 7.4898181110620525 6.983805030584338 8.7863586097955686 6.3025562763214102 8.716522037982946 6.5528348833322552 13.200670689344404 9.3818331211805361 7.7675295025110236 7.3838888704776791 95.393371805548668 10.015441834926607 6.5694176256656638 10.143388211727144 9.4626050144433957 7.6939385980367652 8.3602596670389158 10.913989827036859 93.543610081076622 9.3221256583929044 13.549069464206697 13.262745708227156 8.5003404468297941 11.26901540160179
leaf_count=30 50 159 722 36 1025 257 147 48 36 33 40 30 42 31 54 45 37 34 476 46 30 48 45 37 40 54 467 45 67 66 41 54
internal_value=0 -0.96688 -1.15855 -0.136578 1.66653 1.34734 -1.22006 0.569293 -0.988907 -0.85631 -0.670468 -0.331005 -0.828257 -1.05606 0.220731 -1.23674 -0.978161 -1.30032 -1.25899 -0.618429 -0.74654 -0.855256 -0.906966 -0.977346 -1.12316 -1.28369 -1.24422 -1.00202 -1.28411 -1.16157 -1.02286 -1.31182
internal_weight=0 605.172 565.834 32.2161 353.788 100.497 533.618 37.0293 137.851 90.066 46.917 15.0889 31.8281 43.149 24.5996 47.7845 24.8443 395.767 252.831 23.2446 16.5849 24.3902 16.8465 17.8373 17.0768 235.985 140.592 20.2361 120.355 26.8118 17.8822 18.7588
internal_count=4372 2938 2779 142 1434 409 2637 152 661 428 222 70 152 206 102 233 119 1976 1254 106 76 116 79 85 82 1175 699 99 600 133 86 90
shrinkage=0.03


Tree=12
num_leaves=32
num_cat=0
split_feature=0 3 3 1 0 3 5 0 4 0 1 2 1 0 0 2 2 0 2 2 2 2 2 1 4 1 1 0 1 0 2
split_gain=1490.25 292.508 23.676 20.2417 15.4991 37.368 35.8641 9.80915 5.00638 4.16996 3.05778 2.91613 1.07191 1.04762 2.82329 0.931953 0.905132 0.772053 0.673715 1.20388 0.650686 1.30354 0.90594 0.462695 0.449014 1.47181 1.65841 1.3075 0.999387 2.5971 0.214152
threshold=119.50000000000001 1.5000000000000002 1.0000000180025095e-35 4164.0000000000009 238.50000000000003 1.5000000000000002 1.0000000180025095e-35 40.500000000000007 63.500000000000007 135.50000000000003 1833.0000000000002 1595.5000000000002 1202.0000000000002 2.5000000000000004 3.5000000000000004 1701.5000000000002 1223.5000000000002 88.500000000000014 2083.0000000000005 3793.0000000000005 13639.500000000002 2156.5000000000005 3115.0000000000005 277.00000000000006 63.500000000000007 515.00000000000011 423.00000000000006 21.500000000000004 3974.0000000000005 30.500000000000004 885.50000000000011
decision_type=2 2 2 2 2 2 2 2 2 2 2 2 2 2 2 2 2 2 2 2 2 2 2 2 2 2 2 2 2 2 2
left_child=1 2 3 12 5 6 9 13 18 -2 -10 16 -1 -4 23 -11 17 30 -9 -20 21 -13 -23 -15 -16 26 -26 -27 29 -29 -12
right_child=4 -3 7 -5 -6 -7 -8 8 10 15 11 20 -14 14 24 -17 -18 -19 19 -21 -22 22 -24 -25 25 27 -28 28 -30 -31 -32
leaf_value=-0.020993401768757823 0.010972176614326869 0.050793153906927485 -0.040513770369861361 0.020527056089390164 0.052624207168527844 0.052728394262375057 0.05204424728664029 -0.041293215159539383 -0.003405065496792605 -0.023573915664825366 -0.037759727806390413 -0.023723766477718931 -0.036868690417854011 -0.017216152766828773 -0.039659536641470733 -0.0084494464302594472 -0.041784990162548621 -0.019987428736634207 -0.022373926264934563 -0.041537067992895846 -0.028093343412644134 -0.0029460580085694209 -0.018633921039618941 -0.029160458729184113 -0.036033098530661091 -0.0397716218886748 -0.017658331442083217 -0.034422520896053577 -0.041403601096106468 -0.013164297732641599 -0.027017181234349059
leaf_weight=9.0183441191911751 7.3189372867345837 38.608016356825829 139.25379872322083 12.446859553456305 254.36222757399082 63.781385079026222 14.642239362001417 20.16412128508091 6.8223416060209265 8.0781314820051211 7.5592814385891014 12.610311448574068 9.0578080862760526 6.8961816728115108 102.28612656891346 8.271148353815077 7.7757029086351386 7.8374032676219931 7.6414946019649488 6.3214588612318039 6.4216963350772849 8.1641517132520658 6.2931221574544898 9.1551899313926679 11.41578844189644 96.190169379115105 8.6514055132865888 26.777280926704407 11.481561735272406 7.0347034633159629 6.1419396549463272
leaf_count=41 31 157 717 52 1036 260 59 101 32 34 37 60 42 32 518 34 38 37 37 31 31 38 30 44 57 489 42 135 57 33 30
internal_value=0 -0.967102 -1.15287 -0.292433 1.62094 1.28809 0.503804 -1.2029 -0.924065 -0.253526 -0.766501 -0.835844 -0.970478 -1.27168 -1.23213 -0.536863 -1.07107 -0.950268 -1.2426 -1.04215 -0.626955 -0.549836 -0.332745 -0.80719 -1.25761 -1.21623 -0.942028 -1.25441 -1.10076 -1.00295 -1.10544
internal_weight=0 592.026 553.418 30.523 356.454 102.092 38.3105 522.895 103.753 23.6682 69.626 62.8036 18.0762 419.142 279.888 16.3493 29.3143 21.5386 34.1271 13.963 33.4893 27.0676 14.4573 16.0514 263.837 161.551 20.0672 141.484 45.2935 33.812 13.7012
internal_count=4372 2918 2761 135 1454 418 158 2626 502 99 333 301 83 2124 1407 68 142 104 169 68 159 128 68 76 1331 813 99 714 225 168 67
shrinkage=0.03


Tree=13
num_leaves=31
num_cat=0
split_feature=0 3 3 1 0 3 5 0 4 1 2 2 2 2 2 0 0 0 0 1 2 1 1 0 1 1 2 1 7 1
split_gain=1411.3 274.649 27.5706 15.0667 13.1735 32.0564 36.249 9.63517 3.63976 4.99935 2.73405 2.57443 1.98152 1.45542 2.23017 0.843531 3.51231 0.79031 3.3257 0.773302 0.752877 0.495605 0.392606 0.331283 0.629319 0.563177 0.226095 0.118696 0.0667927 0.0465448
threshold=118.50000000000001 1.5000000000000002 1.0000000180025095e-35 6165.0000000000009 238.50000000000003 1.5000000000000002 1.0000000180025095e-35 30.500000000000004 63.500000000000007 3765.0000000000005 2184.5000000000005 1305.5000000000002 1730.0000000000002 3888.5000000000005 2156.5000000000005 2.5000000000000004 3.5000000000000004 98.500000000000014 77.500000000000014 291.50000000000006 2083.0000000000005 4469.0000000000009 5619.0000000000009 6.5000000000000009 435.50000000000006 515.00000000000011 1883.5000000000002 637.00000000000011 1.5000000000000002 105.00000000000001
decision_type=2 2 2 2 2 2 2 2 2 2 2 2 2 2 2 2 2 2 2 2 2 2 2 2 2 2 2 2 2 2
left_child=1 2 3 12 5 6 10 15 20 -10 11 -2 -1 14 17 -4 19 18 21 -17 -9 -11 -22 24 -18 -26 -8 -27 -3 -25
right_child=4 28 7 -5 -6 -7 26 8 9 13 -12 -13 -14 -15 -16 16 23 -19 -20 -21 22 -23 -24 29 25 27 -28 -29 -30 -31
leaf_value=-0.010485265141711763 -0.001355361914511642 0.051906618392819959 -0.04009068362188449 0.025714328240004206 0.051422606679129297 0.051555814117734328 0.057657710694751334 -0.039669437037636333 -0.0069305133607267221 -0.021423737060926554 0.0075660744172067656 -0.026255766843560315 -0.029334530992509961 -0.036281146505277639 -0.012751695453530143 -0.015108437149352331 -0.040700351414076054 -0.03763337642661168 -0.0094690634022028732 -0.029191402533758709 -0.034230464132599905 -0.032714387176631624 -0.023031603888434046 -0.032747197184451911 -0.023876805908748126 -0.037884283550772502 0.046246981891978067 -0.029859667085779851 0.045555824165769671 -0.038740435107504058
leaf_weight=10.711640179157262 7.5371991991996783 23.680918008089066 141.14609627425671 9.2404410094022733 247.04638604819775 64.008369818329811 7.4392139762639991 24.708116829395294 12.391477927565573 6.0517874062061301 7.4513472318649283 7.9744317829608917 10.71571473777294 16.089242428541183 10.966436848044394 7.4955832213163402 13.683636844158171 8.2434716671705228 8.82588943839073 9.5944775789976102 12.489207640290262 26.995272994041443 6.5008624494075766 7.9389871358871451 8.5151825100183505 11.636639326810839 8.4001154005527479 8.4108381718397123 14.167966589331625 175.62515833973885
leaf_count=49 32 97 741 37 1014 263 30 126 58 30 31 34 50 79 52 35 70 41 41 47 62 134 32 41 42 60 34 43 58 909
internal_value=0 -0.950615 -1.13067 -0.205474 1.58769 1.28301 0.56199 -1.18533 -0.95062 -0.831456 -0.236922 -0.47833 -0.66839 -0.926572 -0.850445 -1.26651 -1.22551 -0.941533 -0.877542 -0.773008 -1.19257 -1.02459 -1.01849 -1.25932 -1.15295 -1.05185 1.72652 -1.15557 1.65362 -1.28325
internal_weight=0 585.825 547.976 30.6678 349.857 102.811 38.8023 517.308 133.262 89.5636 22.963 15.5116 21.4274 77.1721 61.0829 384.047 242.901 50.1164 41.8729 17.0901 43.6982 33.0471 18.9901 225.81 42.2463 28.5627 15.8393 20.0475 37.8489 183.564
internal_count=4372 2934 2779 136 1438 424 161 2643 655 435 97 66 99 377 298 1988 1247 246 205 82 220 164 94 1165 215 145 64 103 155 950
shrinkage=0.03


Tree=14
num_leaves=36
num_cat=0
split_feature=0 3 3 0 0 3 0 7 4 0 0 0 0 0 0 1 0 4 1 1 1 0 0 1 1 0 4 1 1 1 0 1 0 7 1
split_gain=1335.76 262.488 28.9102 16.9802 14.5611 33.1146 7.97584 2.95348 2.70151 2.65074 3.08303 1.75128 2.28962 1.05301 0.750738 0.737846 0.659795 0.866021 0.672874 0.642364 0.618454 0.593137 0.443764 0.613156 0.41546 0.347309 0.345156 0.606923 0.27249 0.450894 0.236216 1.05363 0.216902 0.0684611 0.0283498
threshold=120.50000000000001 1.5000000000000002 1.0000000180025095e-35 54.500000000000007 219.00000000000003 1.5000000000000002 54.500000000000007 1.5000000000000002 63.500000000000007 99.500000000000014 87.500000000000014 2.5000000000000004 3.5000000000000004 169.50000000000003 30.500000000000004 3128.0000000000005 6.5000000000000009 63.500000000000007 515.00000000000011 15082.000000000002 291.50000000000006 10.500000000000002 74.500000000000014 7207.0000000000009 618.50000000000011 238.50000000000003 63.500000000000007 3292.5000000000005 10170.000000000002 3890.5000000000005 37.500000000000007 4965.0000000000009 48.500000000000007 1.5000000000000002 105.00000000000001
decision_type=2 2 2 2 2 2 2 2 2 2 2 2 2 2 2 2 2 2 2 2 2 2 2 2 2 2 2 2 2 2 2 2 2 2 2
left_child=1 2 3 15 5 7 11 13 28 10 22 -4 20 -2 16 21 17 -14 -19 -9 -13 -1 23 -10 -20 -6 27 -16 29 -8 -28 -32 -33 -3 -18
right_child=4 33 6 -5 25 -7 8 19 9 -11 -12 12 14 -15 26 -17 34 18 24 -21 -22 -23 -24 -25 -26 -27 30 -29 -30 -31 31 32 -34 -35 -36
leaf_value=-0.015103764677504551 0.013424509787591583 0.050796465841818732 -0.039669530792690165 0.031885837956125457 0.043335843430897442 0.050428187095151178 -0.03722425442780835 -0.0028753483471605727 -0.030861113545138194 -0.035658205978545209 -0.0032005133631417943 -0.016937068110566045 -0.038445720985237013 0.029365829814746624 -0.027729038658609585 -0.0094111106431816836 -0.032072029208004726 -0.022426073030224071 -0.039906176743685011 0.0086613517459431105 -0.03009214877111974 -0.028193513139499679 -0.016294230512963193 -0.019960747619618739 -0.02691292188837454 0.050339760840461496 -0.025534482961002625 -0.040619709076638498 -0.040713646547406918 -0.026157379829473422 -0.040914489851143931 -0.021829755596245535 -0.031837627988485627 0.04447695212386861 -0.037945039178520559
leaf_weight=7.3675787597894731 8.7716624885797518 23.720883563160896 132.39449480175972 8.2272850275039655 13.144300073385237 53.528158470988274 9.1429083794355446 7.5712717771530178 11.42419843375683 10.773009687662123 9.5827092975378019 8.0833272933959979 17.697917848825455 8.169155076146124 7.0408599376678493 6.7864999175071707 7.6233854889869681 11.188960522413256 6.8632747530937177 9.3798176348209363 8.0544604212045652 8.2405391037464124 9.0708020776510221 12.29042789340019 6.7681771814823151 249.72230951488018 12.84824465215206 13.226319044828413 7.282557249069213 10.342730134725569 9.280828535556795 7.6736082136630994 6.5703529417514801 14.058712437748907 171.11086063086987
leaf_count=34 36 98 709 33 54 222 47 32 57 54 44 38 93 33 36 31 40 56 36 39 40 39 43 60 35 1034 63 68 37 53 47 38 33 58 902
internal_value=0 -0.929225 -1.10859 -0.16126 1.54816 1.19059 -1.16569 0.413197 -0.871355 -0.735467 -0.617886 -1.22061 -1.17447 0.709626 -1.19646 -0.61544 -1.2263 -1.09472 -0.957495 0.111049 -0.789625 -0.74023 -0.764254 -0.844612 -1.1225 1.6667 -1.07814 -1.20965 -1.13739 -1.05014 -1.00211 -1.0803 -0.888558 1.61747 -1.25704
internal_weight=0 574.736 536.956 30.6219 350.287 87.4201 506.334 33.8919 79.9093 53.1411 42.3681 426.425 294.031 16.9408 277.893 22.3946 221.253 42.5183 24.8204 16.9511 16.1378 15.6081 32.7854 23.7146 13.6315 262.867 56.6402 20.2672 26.7682 19.4856 36.373 23.5248 14.244 37.7796 178.734
internal_count=4372 2922 2766 137 1450 362 2629 140 395 258 204 2234 1525 69 1447 104 1162 220 127 71 78 73 160 117 71 1088 285 104 137 100 181 118 71 156 942
shrinkage=0.03


Tree=15
num_leaves=36
num_cat=0
split_feature=0 3 3 1 0 3 5 0 2 2 5 0 0 0 1 0 0 2 2 1 1 1 0 2 1 2 0 1 1 1 1 1 2 1 1
split_gain=1272.18 262.697 27.8451 18.3208 13.0211 29.4339 34.7581 7.69504 7.39184 2.36869 1.92045 2.16053 1.63801 4.23347 1.2564 1.09295 3.2879 0.917039 0.572972 0.63131 0.937584 0.644522 2.57372 0.571405 0.449649 0.265978 0.247632 0.300934 0.859661 0.430181 0.217701 0.349574 0.217067 0.131908 0.104972
threshold=118.50000000000001 1.5000000000000002 1.0000000180025095e-35 4164.0000000000009 238.50000000000003 1.5000000000000002 1.0000000180025095e-35 30.500000000000004 2412.5000000000005 1305.5000000000002 1.0000000180025095e-35 32.500000000000007 74.500000000000014 99.500000000000014 1160.5000000000002 2.5000000000000004 3.5000000000000004 1144.5000000000002 992.50000000000011 4891.0000000000009 5495.0000000000009 7061.0000000000009 64.500000000000014 2225.5000000000005 277.00000000000006 2353.5000000000005 6.5000000000000009 423.00000000000006 515.00000000000011 637.00000000000011 2877.0000000000005 3422.5000000000005 2225.5000000000005 3974.0000000000005 105.00000000000001
decision_type=2 2 2 2 2 2 2 2 2 2 2 2 2 2 2 2 2 2 2 2 2 2 2 2 2 2 2 2 2 2 2 2 2 2 2
left_child=1 2 3 14 5 6 8 15 9 -2 11 -9 18 17 -1 -4 24 -14 -13 25 -21 32 -23 -19 -17 33 27 -18 -29 -30 34 -32 -22 -20 -28
right_child=4 -3 7 -5 -6 -7 -8 10 -10 -11 -12 12 13 -15 -16 16 26 23 19 20 21 22 -24 -25 -26 -27 30 28 29 -31 31 -33 -34 -35 -36
leaf_value=-0.012451189262088515 -0.0058208865467056616 0.04762413455992718 -0.039509821449061421 0.024592417230354255 0.049316136086690998 0.049475372285162661 0.052488726821679259 -0.012732384713317791 0.016392233049912639 -0.029607618934717472 -0.01260354248922398 -0.038638986477118463 -0.0078035922670622636 -0.038079258213276727 -0.029702997182177275 -0.01433960157801021 -0.039688822044865867 -0.027135610634931438 -0.027879463978000594 -0.016723519181363555 -0.030737348673348912 -0.011356987097935443 -0.037178997474647556 -0.014225816790341256 -0.02653372082070676 -0.040432037222243478 -0.031398816893475866 -0.023808231678711291 -0.039696229939762628 -0.028631874200799191 -0.029595017909494141 -0.039561851461587867 -0.040749398808919986 -0.036361227012279257 -0.038191530475241299
leaf_weight=6.728615000844008 7.7352537065744427 38.884057223796844 131.75073869526386 11.53597855567932 243.93079029023647 59.941996589303017 14.581149086356161 7.1945171356201163 8.5024020522832853 8.1120918989181501 7.0842687189579001 16.9290541857481 7.8431110084056881 13.962846055626867 11.7067354619503 6.3538253456354132 9.741467669606207 8.0277599990367872 9.1193265169858986 6.2838177233934394 9.4300254583358818 6.9323511570692045 7.9404256939888 7.3741784840822211 8.2092909216880781 10.26344211399555 7.3161086291074744 10.496584519743921 12.705551132559778 7.9825520664453498 14.523938044905664 8.035018324851988 7.1037358045577994 8.1998309344053251 149.01024386286736
leaf_count=31 33 162 720 48 1020 251 59 35 35 35 34 88 38 73 56 30 52 39 46 32 49 34 40 35 41 53 39 53 68 42 77 43 36 43 802
internal_value=0 -0.920252 -1.1045 -0.164387 1.51864 1.20868 0.52787 -1.16067 -0.199636 -0.606212 -0.952059 -0.981034 -1.01373 -0.828356 -0.785636 -1.23657 -1.19094 -0.559182 -1.09643 -1.04522 -0.946628 -1.02131 -0.844827 -0.70498 -0.713983 -1.17631 -1.22208 -1.12271 -1.05695 -1.18573 -1.24425 -1.10927 -1.17402 -1.06895 -1.26309
internal_weight=0 568.669 529.785 29.9713 342.804 98.8729 38.9309 499.814 24.3497 15.8473 133.689 126.604 119.41 37.2079 18.4354 366.125 234.375 23.245 82.202 65.273 37.6904 31.4065 14.8728 15.4019 14.5631 27.5826 219.811 40.9262 31.1847 20.6881 178.885 22.559 16.5338 17.3192 156.326
internal_count=4372 2939 2777 135 1433 413 162 2642 103 68 675 641 606 185 87 1967 1247 112 421 333 191 159 74 74 71 142 1176 215 163 110 961 120 85 89 841
shrinkage=0.03


Tree=16
num_leaves=34
num_cat=0
split_feature=0 3 3 0 3 1 0 0 2 4 1 0 1 2 1 2 2 0 0 0 2 0 1 1 4 1 1 0 2 1 0 2 1
split_gain=1194.88 241.892 22.4937 17.8446 41.0691 13.891 9.19826 6.41433 9.50466 4.65763 3.98267 1.93084 1.71467 1.84577 1.37483 1.28627 1.48535 1.1962 4.44373 1.16155 0.862488 0.646665 0.592509 1.07038 1.50519 0.935855 0.54497 0.874205 0.596343 0.525339 0.523516 0.45973 0.448791
threshold=118.50000000000001 1.5000000000000002 1.0000000180025095e-35 235.50000000000003 1.5000000000000002 6165.0000000000009 30.500000000000004 177.50000000000003 2368.5000000000005 63.500000000000007 3765.0000000000005 59.500000000000007 11856.000000000002 1628.5000000000002 15082.000000000002 2681.5000000000005 1536.5000000000002 2.5000000000000004 3.5000000000000004 77.500000000000014 2083.0000000000005 10.500000000000002 1199.0000000000002 675.00000000000011 63.500000000000007 515.00000000000011 6165.0000000000009 41.500000000000007 1524.5000000000002 303.50000000000006 202.50000000000003 1038.5000000000002 5495.0000000000009
decision_type=2 2 2 2 2 2 2 2 2 2 2 2 2 2 2 2 2 2 2 2 2 2 2 2 2 2 2 2 2 2 2 2 2
left_child=1 2 5 4 7 15 17 8 14 20 -11 26 13 31 -2 16 -1 -4 29 -15 -8 22 23 24 -20 -26 27 28 -12 -19 -9 -13 -22
right_child=3 -3 6 -5 -6 -7 9 30 -10 10 11 12 -14 19 -16 -17 -18 18 21 -21 32 -23 -24 -25 25 -27 -28 -29 -30 -31 -32 -33 -34
leaf_value=-0.015708075083358253 -0.026179268213147013 0.046598608925840945 -0.038917114735250544 0.04829307631404519 0.048523023258682331 0.026130876717087397 -0.0386792545827611 0.028921644742548488 0.025726884256806002 -0.0059019672232056095 -0.025102500703570754 -0.018193415988438811 -0.032671455171452153 -0.016546678702738963 -0.0069385907467047732 -0.0087339024405056961 -0.036681483930187102 -0.014218345091815117 -0.036884541037621711 0 -0.033017898473594688 -0.037925932460434922 -0.025140143314423373 -0.038704072508248498 -0.019422806591426298 -0.032964766977413046 -0.037082541059042289 -0.021047597827800916 -0.040173848236115937 -0.026562771071597487 0.016573704898079522 -0.031656671201155367 -0.02117317344743172
leaf_weight=7.5553462505340629 6.8714544922113436 37.309648662805557 133.88780710101128 247.27626404166222 59.512702524662018 8.2462154775857908 26.655164420604706 7.8660690337419501 7.2705863863229743 11.481459230184553 6.0915475040674227 6.3492573052644747 8.0436108708381635 8.2485611140727979 7.5824222564697266 7.0220005810260764 6.1255297660827637 9.5932612419128436 23.781283125281334 6.8517555445432654 12.162010446190836 115.48416751623154 8.5759415626525861 41.104625552892685 12.795009121298792 9.3978822380304319 10.418618857860563 12.158183723688124 6.9248338341712952 6.4640696346759787 8.0799200385808927 6.0843355804681778 6.2370918840169898
leaf_count=35 30 157 747 1045 252 33 143 32 30 55 32 31 42 40 32 33 30 46 130 32 63 632 47 225 66 51 55 62 36 33 33 30 32
internal_value=0 -0.904792 -1.08212 1.4662 1.09988 -0.221333 -1.1329 0.279585 -0.0697393 -0.8992 -0.754722 -0.843334 -0.670142 -0.544133 -0.543109 -0.661265 -0.843936 -1.21527 -1.16653 -0.298755 -1.16202 -1.20566 -1.13394 -1.16193 -1.04513 -0.843084 -1.01364 -0.917607 -1.1117 -0.645819 0.761767 -0.834097 -0.972191
internal_weight=0 555.049 517.74 344.459 97.1832 28.9491 488.79 37.6705 21.7245 127.706 82.6522 71.1707 35.5775 27.5339 14.4539 20.7029 13.6809 361.084 227.196 15.1003 45.0543 211.139 95.6547 87.0788 45.9742 22.1929 35.5932 25.1746 13.0164 16.0573 15.946 12.4336 18.3991
internal_count=4372 2918 2761 1454 409 131 2630 157 92 653 415 360 175 133 62 98 65 1977 1230 72 238 1151 519 472 247 117 185 130 68 79 65 61 95
shrinkage=0.03


Tree=17
num_leaves=48
num_cat=0
split_feature=0 0 0 0 5 1 7 4 4 0 1 0 2 2 2 0 2 0 2 0 1 1 2 6 1 2 2 2 2 0 2 2 2 1 1 2 2 2 2 0 2 1 1 2 1 2 5
split_gain=1154.64 24.267 14.0574 12.1576 12.2232 10.4858 4.46793 4.0364 3.80395 2.98041 2.74692 5.24687 3.10782 2.87213 2.39455 2.58265 3.49806 1.67206 1.58871 1.47838 3.99308 4.1907 2.44447 1.82033 1.78449 1.49316 1.32788 1.23878 1.00472 0.872317 0.829308 0.624785 0.61394 0.433297 2.22704 0.529375 0.378201 0.355481 0.275474 0.250141 0.179002 0.172993 0.322469 0.986661 1.29935 0.802152 0.156355
threshold=118.50000000000001 2.5000000000000004 3.5000000000000004 238.50000000000003 1.0000000180025095e-35 4164.0000000000009 1.5000000000000002 63.500000000000007 63.500000000000007 43.500000000000007 11856.000000000002 92.500000000000014 9015.5000000000018 2156.5000000000005 2503.5000000000005 145.50000000000003 1245.0000000000002 77.500000000000014 17608.500000000004 10.500000000000002 1199.0000000000002 515.00000000000011 1396.5000000000002 1.0000000180025095e-35 2760.5000000000005 2582.5000000000005 1267.5000000000002 1357.5000000000002 826.50000000000011 49.500000000000007 2920.5000000000005 1771.5000000000002 2755.0000000000005 715.00000000000011 618.50000000000011 1975.5000000000002 687.50000000000011 1319.5000000000002 4495.0000000000009 64.500000000000014 1051.5000000000002 3365.0000000000005 1747.0000000000002 1256.5000000000002 2275.5000000000005 584.50000000000011 2.0000000000000004
decision_type=2 2 2 2 2 2 2 2 2 2 2 2 2 2 2 2 2 2 2 2 2 2 2 2 2 2 2 2 2 2 2 2 2 2 2 2 2 2 2 2 2 2 2 2 2 2 2
left_child=1 -1 6 4 14 7 -3 41 26 18 11 12 13 17 15 16 -2 28 19 20 21 22 -9 -21 36 27 -7 -26 -10 -30 -28 40 -15 34 -23 37 -25 -35 -16 -31 -17 42 45 -44 -45 -4 -5
right_child=3 2 5 46 -6 8 -8 9 10 -11 -12 -13 -14 32 38 31 -18 -19 -20 23 -22 33 -24 24 25 -27 30 -29 29 39 -32 -33 -34 35 -36 -37 -38 -39 -40 -41 -42 -43 43 44 -46 -47 -48
leaf_value=-0.038259951283757872 0.026693759199393537 0.015542917932031766 -0.023878458474978097 0.047580809450333605 0.047280768780472611 -0.036883885110929833 -0.012022372632309281 0.0020734352168279213 -0.028079048204750743 -0.0053025567453999362 -0.027924963618470508 0.01118901003446587 -0.029428617863632489 0.0063439609771032291 0.039908120304276623 0.027006453861234105 -0.0016603770289889922 -0.0026847728941943164 -0.01121026475320803 -0.012993170736936071 -0.0004264322957217145 -0.036294367752049438 -0.023564102234987592 -0.024295215727061614 -0.019333488357994769 -0.0098765809748018775 -0.016528985293217523 -0.034688523346336132 -0.0082471755198758392 -0.016157353828212567 -0.031162642018416026 0.019734354440756777 -0.0060548139841134366 -0.032729925899458577 -0.01144185231505134 -0.037632524878089255 -0.034074469108662873 -0.022710117479514392 0.02993645505791696 -0.025451804475153803 0.035712063853081857 -0.039545044338099994 -0.038969433054224123 -0.012881788007548894 -0.031177706880534537 -0.03435469985973337 0.040253815461048857
leaf_weight=130.08373779058456 7.3752044737339002 9.5799872577190399 9.5513197332620603 227.48156689107418 42.433843061327934 8.9891587495803851 11.813430860638618 6.8593692779540998 7.9806082993745795 7.0846644192934027 11.295981526374815 7.8639046251773825 10.81874820590019 7.0086009800434095 9.7628248780965823 10.345726475119596 7.9558944851160049 8.1077428758144361 7.2218363881111136 6.7061806619167319 6.7896173894405356 6.9994842708110792 6.1982314139604568 6.2965702861547461 10.694384008646017 6.3541859090328208 11.655665740370752 10.991432204842566 11.021725788712503 11.052834033966066 6.3126983642578116 8.2644557654857618 7.3778792917728424 10.253311544656759 6.9160055965185165 11.897183552384375 53.544825524091721 9.2513686120510084 8.7758720070123655 6.1852970570325843 8.2018454968929273 6.5344459116458884 6.0022492706775692 6.9174398481845847 9.001454681158064 68.821063295006752 8.1962847113609296
leaf_count=740 32 44 52 973 178 49 58 34 41 34 58 35 55 33 41 44 35 37 37 35 35 38 32 34 55 33 61 58 55 55 33 35 36 55 36 65 292 49 37 31 35 35 33 37 49 378 35
internal_value=0 -0.896937 -0.778925 1.45146 1.16138 -0.821525 0.00603844 -0.926437 -0.565898 -0.830037 -0.463593 -0.394126 -0.482294 -0.388739 0.869781 0.731683 0.392801 -0.514688 -0.857157 -0.878388 -0.755172 -0.83964 -0.328885 -0.962218 -1.00146 -0.780782 -0.898861 -0.908484 -0.607054 -0.51063 -0.727903 0.921726 -0 -0.9846 -0.805275 -1.06088 -1.10319 -0.937706 1.17832 -0.655546 1.03393 -1.08257 -1.06622 -0.927047 -0.780527 -1.10387 1.57796
internal_weight=0 548.035 417.951 338.794 103.116 396.557 21.3934 280.887 115.671 174.059 88.7133 77.4173 69.5534 58.7347 60.6818 42.1431 15.3311 44.3482 166.974 159.752 65.1646 58.375 13.0576 94.5876 87.8814 28.04 26.9575 21.6858 36.2405 28.2599 17.9684 26.812 14.3865 45.3174 13.9155 31.4019 59.8414 19.5047 18.5387 17.2381 18.5476 106.828 100.294 21.9211 15.9189 78.3724 235.678
internal_count=4372 2927 2187 1445 437 2085 102 1506 579 922 436 378 343 288 259 181 67 219 888 851 344 309 66 507 472 146 143 113 182 141 94 114 69 243 74 169 326 104 78 86 79 584 549 119 86 430 1008
shrinkage=0.03


Tree=18
num_leaves=34
num_cat=0
split_feature=0 3 3 1 0 3 5 2 0 4 1 1 0 0 0 2 0 0 0 0 1 2 2 4 1 1 0 1 2 0 0 2 1
split_gain=1105.8 247.791 22.2343 13.293 11.0528 27.2327 25.9702 10.6428 8.48719 3.82548 5.94924 2.06878 1.13027 1.21943 2.33969 1.05385 0.931981 3.51641 0.610821 0.604725 1.48478 0.528102 1.59372 0.403555 0.87663 1.60379 0.786903 0.381917 0.250389 0.15359 0.0993444 0.0612226 0.0534051
threshold=119.50000000000001 1.5000000000000002 1.0000000180025095e-35 6165.0000000000009 219.00000000000003 1.5000000000000002 1.0000000180025095e-35 2412.5000000000005 30.500000000000004 63.500000000000007 3765.0000000000005 7207.0000000000009 68.500000000000014 91.500000000000014 101.50000000000001 2211.5000000000005 2.5000000000000004 3.5000000000000004 78.500000000000014 10.500000000000002 3128.0000000000005 1105.0000000000002 1992.5000000000002 63.500000000000007 515.00000000000011 423.00000000000006 21.500000000000004 277.00000000000006 1618.0000000000002 48.500000000000007 238.50000000000003 9015.5000000000018 3072.0000000000005
decision_type=2 2 2 2 2 2 2 2 2 2 2 2 2 2 2 2 2 2 2 2 2 2 2 2 2 2 2 2 2 2 2 2 2
left_child=1 2 3 19 5 6 7 -2 16 15 28 21 -13 18 -15 -10 -4 27 -14 -1 -21 -12 -23 -19 25 -25 -26 -18 -11 -17 -6 -24 -28
right_child=4 -3 8 -5 30 -7 -8 -9 9 10 11 12 13 14 -16 29 17 23 -20 20 -22 22 31 24 26 -27 32 -29 -30 -31 -32 -33 -34
leaf_value=-0.011269652519358502 -0.022490935832894729 0.047585860308673608 -0.038218098153749096 0.024379948883518916 0.040808204990010942 0.046993559619613406 0.04864125812020767 0.021336577866041991 -0.038077118021701765 0.00030231004152140873 -0.039381416372563503 -0.011213124209606084 -0.02337550529545003 -0.0045325578456060266 -0.028727796877283215 -0.022280877735576268 -0.013564297589608018 -0.037714665379054102 -0.037977375143516068 -0.033083020714391502 -0.012713937892056793 -0.018984765391523186 -0.031347337912802149 -0.035736450734785145 -0.036788383052336532 -0.015854903257284714 -0.026520059243275017 -0.0246908189760594 -0.0078035912894263426 -0.030931373840751571 0.046773857718030519 -0.03928696873307002 -0.032909010711141183
leaf_weight=6.7219130694866243 14.004592567682268 37.959287911653519 124.58582474291325 8.7419633865356428 10.836739107966421 54.756270200014114 11.640232041478155 7.6922743320465079 27.214458480477333 6.2254810035228711 8.3031829595565778 8.9991975277662259 6.8908538222312945 7.0020104944705954 8.2065307497978193 6.9284525066614178 6.2735636681318274 80.79951998591423 6.8875757604837418 7.2522733360528928 6.9781706482172012 10.02355717122555 9.7331661283969897 9.0591510087251681 87.389981970191002 7.3580566495656958 12.043949797749521 9.3961270749568921 6.1738763451576233 9.7252446264028531 232.54018907248974 7.3619407266378394 10.176054015755652
leaf_count=32 60 161 725 35 46 237 47 31 151 30 45 45 35 33 44 37 30 459 33 36 33 53 50 50 496 38 67 48 30 51 1007 40 57
internal_value=0 -0.877023 -1.06184 -0.21808 1.4397 1.13196 0.415299 -0.227144 -1.11418 -0.892845 -0.766434 -0.87487 -0.704687 -0.803972 -0.592852 -1.13783 -1.19659 -1.15284 -1.02975 -0.652911 -0.776849 -1.05455 -0.971818 -1.18811 -1.14304 -0.900281 -1.17849 -0.680921 -0.116394 -0.917088 1.55069 -1.16473 -0.986034
internal_weight=0 544.411 506.452 29.6943 331.47 88.0934 33.3371 21.6969 476.758 129.676 85.8074 73.408 37.9862 28.987 15.2085 43.8682 347.082 222.496 13.7784 20.9524 14.2304 35.4218 27.1187 206.827 126.027 16.4172 109.61 15.6697 12.3994 16.6537 243.377 17.0951 22.22
internal_count=4372 2944 2783 136 1428 375 138 91 2647 677 438 378 190 145 77 239 1970 1245 68 101 69 188 143 1167 708 88 620 78 60 88 1053 90 124
shrinkage=0.03


Tree=19
num_leaves=35
num_cat=0
split_feature=0 3 3 0 3 5 1 0 2 4 1 2 0 0 1 0 2 2 2 2 2 2 2 2 0 1 1 1 1 1 2 1 0 0
split_gain=1060.47 231.233 17.0582 13.7564 30.3661 25.6843 12.3761 7.07816 6.78234 3.88435 6.69467 1.57043 1.04792 1.93269 0.912561 1.44882 1.56885 0.885647 0.83176 0.699084 0.513112 0.457571 0.430097 0.758667 0.390007 0.896274 0.788619 0.508751 0.610858 0.392144 0.244733 0.170659 0.0565468 0.0302223
threshold=118.50000000000001 1.5000000000000002 1.0000000180025095e-35 238.50000000000003 1.5000000000000002 1.0000000180025095e-35 6165.0000000000009 30.500000000000004 2412.5000000000005 63.500000000000007 3765.0000000000005 14294.500000000002 2.5000000000000004 3.5000000000000004 7061.0000000000009 78.500000000000014 1595.5000000000002 1305.5000000000002 1235.5000000000002 3612.0000000000005 1883.5000000000002 1730.0000000000002 1120.5000000000002 2389.5000000000005 10.500000000000002 1199.0000000000002 715.00000000000011 423.00000000000006 515.00000000000011 637.00000000000011 1912.5000000000002 109.50000000000001 4.5000000000000009 15.500000000000002
decision_type=2 2 2 2 2 2 2 2 2 2 2 2 2 2 2 2 2 2 2 2 2 2 2 2 2 2 2 2 2 2 2 2 2 2
left_child=1 2 6 4 5 8 21 12 17 19 -11 14 -4 -14 22 16 -16 -2 -17 -9 -7 -1 -12 30 25 26 27 31 -29 -30 -24 -15 -3 -26
right_child=3 32 7 -5 -6 20 -8 9 -10 10 11 -13 13 24 15 18 -18 -19 -20 -21 -22 -23 23 -25 33 -27 -28 28 29 -31 -32 -33 -34 -35
leaf_value=-0.015807882321543319 -0.012209081469062546 0.039183659039165174 -0.03790422727750449 0.045991933132911327 0.046255587967403644 0.047973445138271655 0.022871663752974371 -0.037177814764165852 0.014183554044514072 -0.0010523567458850303 -0.035508393601757386 -0.039566207107103332 -0.02305879196070593 -0.029329361009897519 -0.023963754463715122 -0.01856845595062355 -0.0043289050467638333 -0.027665185340226255 -0.032729554779044386 -0.026266122381430154 0.034480005974971153 -0.025860170412250642 -0.025611768842072474 -0.03524671898536641 -0.038401225811829878 -0.021639781938425796 -0.037617033529294457 -0.02052114675405128 -0.035516105753217113 -0.023691738669852969 -0.015730010176072857 -0.038553123618210242 0.046513099592417194 -0.035274092732418362
leaf_weight=10.060229003429418 8.1689085513353366 7.458747833967208 126.62961509823799 233.9839496165514 57.715267941355705 8.1302617788314802 7.7393556982278815 31.305118799209595 8.0705909579992277 10.948256477713583 8.8101659119129199 8.1370244324207288 14.89405310153961 6.7669196277856853 7.455929994583129 7.8245508372783688 8.0809755176305753 7.2022066563367835 10.795616090297697 9.0759649872779828 7.5204964876174918 11.357163369655607 8.5811247527599352 6.6108609139919272 38.479299083352089 7.1777184903621665 37.0028385668993 9.3638324439525622 10.728150650858881 6.0518646687269202 6.1489400565624228 11.735472604632376 30.291360914707184 72.186693012714386
leaf_count=48 35 32 753 1027 253 33 31 175 33 53 49 44 75 39 39 39 40 31 55 49 31 56 46 35 224 41 215 50 62 34 32 67 130 416
internal_value=0 -0.879559 -1.06199 1.40087 1.08031 0.396349 -0.315213 -1.10862 -0.262375 -0.900386 -0.773482 -0.883692 -1.18391 -1.13644 -0.827073 -0.703885 -0.464816 -0.654876 -0.897997 -1.15999 1.38938 -0.709282 -0.963311 -0.867678 -1.1634 -1.10054 -1.13265 -1.02992 -0.921259 -1.04768 -0.723013 -1.17806 1.50481 -1.21295
internal_weight=0 531.698 493.948 330.792 96.8077 39.0925 29.1567 464.791 23.4417 123.775 83.3934 72.4452 341.016 214.387 64.3082 34.1571 15.5369 15.3711 18.6202 40.3811 15.6508 21.4174 30.1511 21.3409 199.493 88.8268 81.6491 44.6462 26.1438 16.78 14.7301 18.5024 37.7501 110.666
internal_count=4372 2929 2767 1443 416 163 135 2632 99 656 432 379 1976 1223 335 173 79 66 94 224 64 104 162 113 1148 508 467 252 146 96 78 106 162 640
shrinkage=0.03


end of trees

feature importances:
dwd_ord_bike_ride_info_ride_time=201
dwd_ord_bike_ride_info_ride_distance=189
dwd_ord_bike_ride_info_openlock_time=145
dwd_ord_bike_ride_info_pay_status=64
dwd_ord_bike_ride_info_system_code=28
dwd_ord_bike_ride_info_end_type=20
dwd_ord_bike_ride_info_ride_status=8
dwd_ord_bike_ride_info_start_type=1

parameters:
[boosting: gbdt]
[objective: binary]
[metric: binary_logloss,auc]
[tree_learner: serial]
[device_type: cpu]
[data: ]
[valid: ]
[num_iterations: 100]
[learning_rate: 0.03]
[num_leaves: 60]
[num_threads: -1]
[max_depth: -1]
[min_data_in_leaf: 30]
[min_sum_hessian_in_leaf: 6]
[bagging_fraction: 0.8]
[pos_bagging_fraction: 1]
[neg_bagging_fraction: 1]
[bagging_freq: 1]
[bagging_seed: 11]
[feature_fraction: 0.9]
[feature_fraction_bynode: 1]
[feature_fraction_seed: 24091]
[early_stopping_round: 0]
[first_metric_only: 0]
[max_delta_step: 0]
[lambda_l1: 0.1]
[lambda_l2: 0]
[min_gain_to_split: 0]
[drop_rate: 0.1]
[max_drop: 50]
[skip_drop: 0.5]
[xgboost_dart_mode: 0]
[uniform_drop: 0]
[drop_seed: 11432]
[top_rate: 0.2]
[other_rate: 0.1]
[min_data_per_group: 100]
[max_cat_threshold: 32]
[cat_l2: 10]
[cat_smooth: 10]
[max_cat_to_onehot: 4]
[top_k: 20]
[monotone_constraints: ]
[feature_contri: ]
[forcedsplits_filename: ]
[forcedbins_filename: ]
[refit_decay_rate: 0.9]
[cegb_tradeoff: 1]
[cegb_penalty_split: 0]
[cegb_penalty_feature_lazy: ]
[cegb_penalty_feature_coupled: ]
[verbosity: -1]
[max_bin: 255]
[max_bin_by_feature: ]
[min_data_in_bin: 3]
[bin_construct_sample_cnt: 200000]
[histogram_pool_size: -1]
[data_random_seed: 6631]
[output_model: LightGBM_model.txt]
[snapshot_freq: -1]
[input_model: ]
[output_result: LightGBM_predict_result.txt]
[initscore_filename: ]
[valid_data_initscores: ]
[pre_partition: 0]
[enable_bundle: 1]
[max_conflict_rate: 0]
[is_enable_sparse: 1]
[sparse_threshold: 0.8]
[use_missing: 1]
[zero_as_missing: 0]
[two_round: 0]
[save_binary: 0]
[header: 0]
[label_column: ]
[weight_column: ]
[group_column: ]
[ignore_column: ]
[categorical_feature: ]
[predict_raw_score: 0]
[predict_leaf_index: 0]
[predict_contrib: 0]
[num_iteration_predict: -1]
[pred_early_stop: 0]
[pred_early_stop_freq: 10]
[pred_early_stop_margin: 10]
[convert_model_language: ]
[convert_model: gbdt_prediction.cpp]
[num_class: 1]
[is_unbalance: 0]
[scale_pos_weight: 1]
[sigmoid: 1]
[boost_from_average: 1]
[reg_sqrt: 0]
[alpha: 0.9]
[fair_c: 1]
[poisson_max_delta_step: 0.7]
[tweedie_variance_power: 1.5]
[max_position: 20]
[lambdamart_norm: 1]
[label_gain: ]
[metric_freq: 1]
[is_provide_training_metric: 0]
[eval_at: ]
[multi_error_top_k: 1]
[num_machines: 1]
[local_listen_port: 12400]
[time_out: 120]
[machine_list_filename: ]
[machines: ]
[gpu_platform_id: -1]
[gpu_device_id: -1]
[gpu_use_dp: 0]

end of parameters

pandas_categorical:[]
